c 0.072147 -0.226041 0.286949 0.005708 0.053345 0.162639 -0.155129 0.245795 -0.551435 0.317535 -0.013188 0.115589 0.307400 0.014883 -0.038810 0.311890 0.586636 -0.316436 -0.222101 -0.582513 -0.441390 -0.270457 -0.031187 -0.098861 0.111618 0.379822 0.128195 0.461276 -0.000066 -0.118865
C -0.164366 0.096008 -0.003327 0.321776 -0.047637 -0.218457 -0.003308 -0.085099 0.452019 -0.396481 0.028646 -0.037331 -0.225511 -0.428598 0.196326 -0.142291 -0.393413 0.453553 0.070850 0.206237 0.426434 0.364199 -0.055064 0.153250 0.568679 -0.275828 0.184090 -0.182889 0.203095 0.016544
( -0.116025 -0.012582 -0.448958 0.115431 0.347889 -0.147741 -0.141325 -0.008021 0.223820 -0.180676 -0.097051 0.150004 0.234141 -0.400059 -0.015715 0.136204 -0.236653 0.247475 -0.189619 0.310303 -0.062214 0.307807 0.094016 -0.176753 0.208625 0.030088 0.114212 -0.076478 -0.069357 -0.295834
) -0.103335 -0.068097 -0.221582 0.241086 0.183609 -0.131489 0.128407 0.224690 -0.112009 0.078100 -0.127692 0.206085 0.266623 -0.134337 0.226050 0.218996 0.061181 0.080387 0.011739 -0.278698 -0.184544 -0.123855 -0.021382 -0.124902 0.169169 0.164332 0.063904 0.473582 0.013030 -0.306355
1 0.014659 -0.383041 -0.427469 0.468820 0.490873 -0.578238 -0.047975 0.814659 0.255373 -0.277896 -0.266898 0.033147 0.300763 0.025779 -0.196590 0.505241 0.183438 0.625197 -0.203896 -0.173591 -0.829841 -0.494218 -0.623583 0.003651 0.478664 0.020237 -0.008418 0.128322 -0.118394 -0.292341
O -0.254128 0.002265 -0.245776 -0.061630 0.155447 -0.019712 -0.096401 -0.163974 0.172300 -0.234142 0.054399 -0.027408 0.023005 -0.358933 0.006285 -0.001211 -0.384719 0.247214 -0.079176 0.252615 0.189622 0.361350 0.137098 -0.099511 0.141437 -0.031167 0.142129 -0.277187 0.027747 -0.027709
2 0.168797 -0.228767 0.107025 0.351902 0.331063 -0.347622 -0.071750 0.402492 -0.052720 -0.255877 0.055270 -0.176378 0.120406 0.188354 -0.341463 0.322720 0.355413 0.444529 -0.135717 -0.290398 -0.536010 -0.407768 -0.541362 0.255496 0.267775 -0.080671 -0.042189 -0.005697 -0.048869 0.126231
N -0.082112 -0.007310 -0.071516 0.214258 0.102428 -0.369612 -0.428525 -0.246210 0.459443 -0.514040 0.112613 -0.010095 -0.146760 -0.571819 -0.313330 -0.019799 -0.227625 0.347017 -0.197522 0.562545 0.315885 0.437404 -0.102996 0.185699 0.690535 -0.215453 0.189381 -0.513772 0.119552 0.102845
= -0.332211 -0.140038 -0.239159 -0.150203 0.228418 -0.029840 -0.575584 -0.332166 0.075250 -0.357872 0.097176 0.068961 0.083668 -0.733221 -0.262092 0.084178 -0.341135 0.062288 -0.449156 0.598769 0.267295 0.619951 0.179271 -0.186426 0.494556 0.103198 0.300847 -0.505130 0.048569 -0.034474
[ 0.141071 0.306347 -0.196219 0.142103 0.131987 -0.284498 0.175148 -0.286930 0.754995 -0.545103 0.090391 -0.412912 -0.365515 0.193889 -0.338855 -0.276534 -0.503331 0.753623 0.303260 0.580347 0.350262 0.301475 -0.118491 0.395728 -0.164156 -0.644693 -0.192875 -0.861769 -0.085937 0.351494
] 0.267151 0.348900 -0.141886 0.252484 0.126327 -0.353373 0.397925 -0.112534 0.818942 -0.498305 0.064783 -0.498931 -0.415087 0.471561 -0.315760 -0.309271 -0.411683 0.869034 0.464923 0.447838 0.167975 0.040692 -0.263703 0.505186 -0.336579 -0.781881 -0.291631 -0.804383 -0.129098 0.404273
@ 0.255871 0.635056 -0.582672 0.385674 0.159004 -0.449666 0.654581 -0.128487 1.335204 -0.550982 -0.193085 -0.447071 -0.483936 0.422818 -0.071637 -0.425646 -0.873158 1.196669 0.715525 0.755745 0.369528 0.314794 -0.138920 0.419200 -0.393113 -0.959306 -0.347593 -0.830723 -0.216000 0.066488
H 0.403219 0.451733 -0.152177 0.426072 0.093831 -0.471991 0.493207 -0.104737 0.995269 -0.544667 0.025940 -0.515773 -0.483694 0.548991 -0.311694 -0.336681 -0.432871 1.006609 0.595853 0.435746 0.203758 0.033840 -0.349766 0.584916 -0.284214 -0.888352 -0.353277 -0.726610 -0.130572 0.360787
n 0.192375 -0.133582 0.623948 0.026729 -0.154429 0.122138 0.163070 0.169709 -0.501108 0.095088 0.275216 -0.301013 -0.037407 0.553289 -0.151754 0.120680 0.584489 -0.062362 0.145804 -0.803015 -0.267770 -0.581767 -0.279359 0.343942 -0.249692 0.049110 -0.157501 0.159165 0.058503 0.482246
A 0.037388 -0.378967 -0.240452 0.630938 0.216886 -0.491771 0.585612 1.215463 -0.140075 0.226126 -0.405628 0.200443 0.383236 0.461764 0.405212 0.519442 0.489201 0.414129 0.226197 -1.035295 -1.007802 -1.096126 -0.667655 -0.025947 0.252014 0.203686 -0.128383 1.055756 -0.046384 -0.435435
3 0.205977 0.027839 0.594577 0.085699 -0.022566 0.074276 0.068655 -0.112595 -0.487434 -0.039379 0.335473 -0.288957 -0.036524 0.326674 -0.239472 0.062661 0.455634 -0.025154 0.096940 -0.513251 -0.079358 -0.319211 -0.189631 0.381164 -0.143556 -0.063779 -0.082296 0.029636 0.068346 0.446208
F -0.165963 -0.039092 -0.250287 0.759821 0.250709 -0.317445 0.657158 0.576173 -0.078492 0.159033 -0.038516 0.406269 0.552978 -0.257629 0.800117 0.364698 0.094306 0.347712 0.355709 -0.901193 -0.413639 -0.366835 -0.078490 0.095603 0.308526 0.221371 0.030778 1.196560 0.192235 -0.517703
+ 0.314309 0.233731 0.010761 0.248740 0.128095 -0.347715 0.211885 -0.141561 0.602463 -0.493147 0.135910 -0.458567 -0.356073 0.412440 -0.452972 -0.219734 -0.215597 0.686371 0.305029 0.396446 0.107833 -0.008835 -0.321769 0.508325 -0.201532 -0.664749 -0.258388 -0.734459 -0.101467 0.446767
S -0.267787 -0.148862 -0.204169 -0.041523 0.258558 -0.101606 -0.465960 -0.158354 0.159207 -0.396126 0.087962 -0.014284 0.069129 -0.576530 -0.268725 0.126982 -0.262712 0.246725 -0.371893 0.462643 0.137887 0.472666 0.046127 -0.054271 0.479433 0.029666 0.225687 -0.524921 0.032665 0.025023
- 0.017537 -0.147454 0.332871 -0.215097 0.029426 0.196846 -0.087859 -0.117583 -0.432499 -0.007932 0.253836 -0.223421 0.030290 0.206456 -0.294644 0.069333 0.272331 -0.122649 -0.099638 -0.231800 -0.077211 -0.144449 -0.017459 0.137196 -0.226706 0.069063 -0.039191 -0.233501 -0.019502 0.396540
l -0.252990 -0.275263 0.109124 0.365331 -0.000421 -0.111050 0.172267 0.521939 -0.316381 0.125987 -0.156002 0.218337 0.201513 -0.199677 0.472813 0.257936 0.262390 0.039989 -0.081319 -0.670588 -0.193978 -0.345218 -0.207568 -0.108667 0.604302 0.278053 0.226146 0.757317 0.218707 -0.219195
s 0.103351 -0.254320 0.276425 -0.151371 -0.064246 0.202379 -0.163739 0.211126 -0.678798 0.389961 -0.054733 0.158518 0.218061 0.200130 -0.045939 0.243761 0.584211 -0.578994 -0.244392 -0.437289 -0.379946 -0.422606 -0.067111 -0.164642 -0.014325 0.407456 -0.007778 0.490247 -0.039572 -0.088850
o 0.131609 -0.235573 0.396239 -0.146026 -0.155682 0.244507 0.067812 0.261324 -0.788713 0.440706 0.022092 0.038634 0.184731 0.467548 -0.000412 0.216840 0.648756 -0.523235 -0.024572 -0.749110 -0.395260 -0.596512 -0.115976 -0.059019 -0.290729 0.385814 -0.106985 0.548347 -0.033645 0.064434
4 0.159523 0.256952 0.941647 -0.309847 -0.540289 0.696756 0.318120 -0.608348 -0.902462 0.446829 0.405660 -0.232937 -0.189017 0.426618 0.117107 -0.289231 0.409715 -0.672368 0.392558 -0.690921 0.525308 -0.059573 0.397655 0.259888 -0.645652 0.097114 -0.082693 0.205440 0.117766 0.534244
/ -0.376974 -0.558604 -0.202012 -0.360870 0.381326 -0.074772 -1.560943 -0.314766 -0.148820 -0.417362 0.051724 0.334433 0.261674 -1.281008 -0.740899 0.362717 -0.000233 -0.442766 -1.310324 1.061367 0.015480 0.763867 0.065030 -0.469310 1.141445 0.475542 0.591317 -0.649669 0.054131 -0.204330
# -0.334283 -0.335279 -0.182499 0.298638 0.169795 -0.496765 -0.734280 0.049456 0.307438 -0.494717 -0.053747 0.286913 0.070383 -1.016096 -0.238905 0.279372 -0.049872 0.253841 -0.518217 0.489429 0.160331 0.397917 -0.164357 0.002626 1.332651 0.123532 0.435669 -0.287707 0.189609 -0.173012
B 0.453348 -0.298875 -0.908459 -0.060642 0.822769 -0.203672 -0.380347 0.743901 -0.152405 0.358669 -0.607235 0.327654 0.752415 0.476757 -0.441291 0.647839 0.438355 -0.301603 -0.637740 0.192567 -1.467438 -0.630749 -0.331408 -0.696573 -0.457439 0.370899 -0.240975 0.560903 -0.559741 -0.981600
r 0.462603 -0.348575 -0.942636 -0.035316 0.835355 -0.235297 -0.351680 0.838713 -0.188196 0.387449 -0.662009 0.352127 0.785811 0.532813 -0.432772 0.697290 0.490380 -0.307796 -0.633687 0.135435 -1.551971 -0.727006 -0.384146 -0.729870 -0.448722 0.410597 -0.261390 0.639822 -0.584668 -1.029246
\ -0.333811 -0.500421 -0.055609 -0.305400 0.295367 -0.095145 -1.385390 -0.308616 -0.242646 -0.388272 0.129592 0.277504 0.224967 -1.117162 -0.699626 0.347493 0.125626 -0.382525 -1.097305 0.797609 0.056961 0.627889 0.057871 -0.283922 1.079518 0.443842 0.500291 -0.593828 0.089491 -0.049026
5 0.101991 0.592340 1.029451 -0.757298 -1.213872 1.136617 0.685811 -1.038142 -0.819525 0.939856 0.360032 -0.052247 -0.532766 0.622396 0.625796 -0.842770 0.073214 -1.258142 0.826747 -0.558892 1.273481 0.223593 0.990059 0.111127 -1.158463 0.116651 -0.216171 0.333517 0.183544 0.606676
I -0.105247 -0.573991 -0.542873 0.173752 0.403210 -0.387372 -0.293403 0.859376 -0.232690 0.216196 -0.516374 0.500139 0.581418 -0.221982 -0.119220 0.664580 0.487722 0.023549 -0.437610 -0.262085 -0.919496 -0.455426 -0.350683 -0.466104 0.604176 0.602663 0.157494 0.559095 -0.235879 -0.647958
P -0.179991 0.174377 -0.507871 -0.202801 0.209857 -0.039680 -0.140384 -0.488557 0.575054 -0.499460 -0.010096 -0.177590 -0.177089 -0.298538 -0.284883 -0.210870 -0.745885 0.410029 -0.033291 1.037577 0.519366 0.736480 0.272156 -0.026734 -0.069431 -0.302568 -0.006556 -0.995268 -0.141765 0.072668
6 0.075672 0.874211 0.670304 -0.998518 -1.669941 1.243612 1.121147 -1.096695 -0.226274 1.291820 0.096743 0.157230 -0.839521 0.889506 1.159422 -1.337916 -0.454914 -1.547600 1.225340 -0.087397 1.661832 0.342251 1.326775 -0.098707 -1.653339 -0.025667 -0.459619 0.451308 0.190002 0.432422
7 0.181889 0.690368 0.844046 -1.036668 -1.612866 1.226467 1.017746 -0.995428 -0.618900 1.332693 0.198550 0.116311 -0.716971 1.045758 0.927327 -1.152871 -0.092861 -1.703944 1.058115 -0.319146 1.378818 0.024365 1.111908 -0.063747 -1.664464 0.144122 -0.530931 0.549894 0.139094 0.532538
8 0.023996 0.107179 0.298355 -0.416983 -0.474752 0.429504 0.121952 -0.343725 -0.339886 0.434535 0.065415 0.071367 -0.177617 0.249488 0.175459 -0.315319 0.028144 -0.703362 0.146413 -0.035499 0.408820 0.031193 0.336806 -0.079967 -0.455992 0.138903 -0.108065 0.146015 0.027074 0.160531
<unk> 0.020436 -0.014212 -0.007025 0.007565 0.012825 -0.016251 -0.001242 -0.001649 -0.023563 0.004233 -0.007281 0.004136 0.013404 0.032638 -0.043016 0.019449 0.028699 -0.005514 -0.000748 0.002930 -0.007743 -0.018539 -0.011637 0.009402 0.002143 0.009476 -0.018079 -0.001651 -0.016793 0.005915
