c -0.199687 -0.098417 0.247441 0.177241 -0.096207 0.291290 0.252424 0.335813 0.267640 0.011434 -0.204408 -0.091124 0.120544 0.026308 -0.090314 -0.050926 0.041722 0.324895 0.269449 0.043235 -0.502750 -0.290006 -0.000448 -0.179958 -0.050071 0.132438 -0.281301 -0.058640 0.239589 0.412287 -0.602133 0.214457 0.212314 -0.400058 0.099725
C 0.339539 0.068727 0.047573 0.000801 -0.202876 -0.217115 -0.285988 -0.244141 -0.298930 0.164167 -0.077076 0.060834 0.264928 -0.156292 0.135163 -0.224138 -0.330730 0.015056 -0.235210 0.257262 0.282843 0.242622 0.039982 0.200566 0.144725 -0.324177 0.360602 0.042330 -0.297048 0.153618 0.173523 0.011600 0.031969 0.592562 -0.214031
( 0.232719 0.313898 -0.174159 -0.044498 -0.242580 -0.122111 -0.082519 -0.334211 0.080911 0.035739 -0.041751 0.285198 -0.199588 -0.244400 0.053395 -0.312446 -0.385091 -0.420461 -0.021541 0.113082 0.076151 -0.137730 0.089869 0.028789 0.142818 -0.207220 0.087694 0.131200 -0.170881 -0.089505 -0.062498 -0.083913 0.034172 0.094809 -0.055036
) -0.196898 0.220949 -0.085638 0.133023 -0.210863 0.155021 0.140071 0.023204 -0.031669 -0.158108 -0.151190 0.107217 -0.199443 -0.032348 -0.060846 -0.207786 -0.161084 -0.136491 0.171523 0.098773 -0.284288 -0.271194 0.096434 -0.002931 0.045530 -0.140511 -0.168178 -0.091560 0.020776 0.143694 -0.255314 0.079466 0.244700 -0.170763 0.116766
1 0.077620 0.329804 -0.206928 0.239323 -0.229685 0.335108 0.061910 -0.003199 -0.074558 0.129261 -0.430016 0.478278 -0.241906 -0.258708 0.061094 -0.740752 -0.172519 -0.183778 0.138399 0.043561 -0.460848 -0.061202 -0.005060 -0.028276 0.570888 0.249566 -0.477345 -0.122490 -0.047962 0.066641 -0.341594 0.139039 0.946226 0.305803 0.105065
O 0.406568 0.153827 -0.067576 -0.072251 -0.203467 -0.377658 -0.098519 -0.369764 0.060637 0.098563 0.004435 0.285450 -0.014071 -0.246913 -0.131559 -0.118885 -0.138374 -0.188199 -0.083185 0.146691 0.122073 0.161133 0.078370 0.000687 0.071902 -0.325730 0.255465 0.061915 -0.124684 -0.059419 0.219383 -0.050915 -0.116258 0.174502 -0.103318
2 0.096787 -0.115322 -0.021996 0.327562 -0.091422 0.344458 0.085954 0.170131 -0.084747 0.214179 -0.402206 0.193488 0.099007 -0.162667 -0.096219 -0.430382 0.003140 0.138364 0.074497 0.029569 -0.402928 0.272337 -0.056198 -0.111347 0.410659 0.140775 -0.217975 -0.155644 -0.060238 0.256055 -0.239111 0.228469 0.726868 0.339635 0.017729
N 0.627152 0.070484 0.102866 -0.068586 -0.191942 -0.370011 -0.347719 -0.372773 -0.018211 0.322683 -0.106741 0.210207 0.324258 -0.334908 0.192130 -0.333636 -0.419206 0.005695 -0.318960 0.281863 0.338607 0.221795 -0.009230 0.137103 0.264314 -0.227010 0.331906 0.181576 -0.251119 0.112629 -0.000548 -0.108054 -0.024854 0.628861 -0.291075
= 0.754029 0.227233 0.065827 -0.199382 -0.336003 -0.640471 -0.156096 -0.513052 0.366525 0.214105 -0.009854 0.373418 0.185335 -0.421296 -0.012781 -0.239005 -0.334669 -0.091741 -0.150386 0.281364 0.239973 0.015022 0.081322 -0.004807 0.076100 -0.332909 0.318484 0.227162 -0.044709 0.163144 -0.039827 -0.176923 -0.318613 0.159045 -0.199835
[ 0.335291 -0.117722 -0.329545 0.058299 0.091944 -0.075007 -0.380623 -0.322529 -0.572529 0.230893 0.044666 0.128916 -0.007109 -0.133603 0.012005 -0.069340 -0.094023 -0.344330 -0.343434 -0.038283 0.472951 0.819193 -0.038834 0.162693 0.252164 -0.210366 0.471163 -0.005882 -0.509803 -0.493599 0.809326 0.010002 0.151242 0.877579 -0.208737
] 0.097177 -0.206653 -0.351315 0.174754 0.218359 0.168925 -0.332450 -0.162644 -0.705546 0.198803 0.006524 0.067467 -0.087699 -0.036979 -0.011371 -0.065721 0.022678 -0.310238 -0.288268 -0.148495 0.355745 0.869686 -0.085515 0.135293 0.273046 -0.105590 0.359585 -0.097078 -0.529443 -0.551449 0.810236 0.096079 0.342189 0.876344 -0.154735
@ 0.034122 0.000560 -0.651569 0.171777 0.210180 0.158476 -0.533560 -0.352703 -1.126572 0.065586 0.134349 0.088031 -0.326660 -0.008239 0.185092 -0.148564 -0.216078 -0.759200 -0.363763 -0.141229 0.686700 0.893483 -0.016913 0.352377 0.286153 -0.245050 0.558521 -0.067020 -0.820187 -0.913562 1.139025 0.029440 0.390799 1.056420 -0.173676
H 0.017541 -0.268587 -0.456283 0.283230 0.271570 0.336118 -0.440646 -0.128924 -0.995241 0.202638 -0.020938 -0.012083 -0.078319 0.013013 0.108181 -0.134148 -0.081686 -0.417926 -0.374066 -0.154592 0.456493 1.003072 -0.112719 0.230400 0.364902 -0.112167 0.416861 -0.132995 -0.704556 -0.648166 0.891506 0.123600 0.529423 1.136131 -0.180532
n -0.302567 -0.490797 0.213206 0.288750 0.132642 0.519222 0.296807 0.573944 -0.095543 0.077898 -0.269621 -0.280330 0.307022 0.219733 -0.381348 0.233114 0.492473 0.601871 0.193234 -0.085149 -0.555274 0.415199 -0.098691 -0.218886 0.042949 0.243232 -0.189786 -0.316026 0.145842 0.413267 -0.057068 0.340195 0.432293 -0.030874 0.089388
A -0.605432 0.298850 -0.138343 0.346245 -0.121742 0.638118 0.307324 0.335311 -0.168194 -0.215857 -0.375942 0.178255 -0.407257 0.106333 -0.033945 -0.488407 0.099685 -0.019771 0.394184 -0.069541 -0.784219 -0.381893 0.021458 -0.052120 0.319060 0.294379 -0.737640 -0.327415 0.152805 0.149474 -0.473678 0.265655 0.959174 -0.211225 0.349413
3 -0.034735 -0.568602 0.161371 0.334645 0.077708 0.341986 0.176166 0.419155 -0.110880 0.111740 -0.288527 -0.267801 0.400306 0.094975 -0.231312 0.125115 0.278927 0.450876 0.070912 0.018796 -0.276597 0.426181 -0.052833 -0.125254 0.008833 0.010872 0.064775 -0.187581 -0.026020 0.466328 -0.061196 0.258361 0.255385 0.054815 -0.051038
F -0.617541 0.512637 -0.155386 0.365614 -0.389877 0.583412 0.281085 0.138458 -0.354765 -0.389643 -0.446231 0.124929 -0.449705 0.031737 -0.215002 -0.480402 -0.154518 -0.247417 0.387397 0.041449 -0.687663 -0.422935 0.163273 -0.052291 0.054281 -0.405435 -0.335304 -0.335758 -0.172931 0.263888 -0.366839 0.345864 0.681147 -0.202292 0.156665
+ 0.192717 -0.271737 -0.298623 0.225852 0.195256 0.194575 -0.336470 -0.133317 -0.646387 0.279269 -0.084024 0.066869 0.033739 -0.096497 0.041774 -0.167119 -0.035297 -0.222418 -0.317408 -0.096211 0.308811 0.861182 -0.106005 0.114449 0.352259 -0.053745 0.301321 -0.076088 -0.485262 -0.387492 0.600192 0.094180 0.403166 0.938590 -0.184524
S 0.698409 0.211623 0.035780 -0.142825 -0.315108 -0.461156 -0.134323 -0.408888 0.261452 0.244723 -0.079539 0.371888 0.157668 -0.391500 -0.016643 -0.307080 -0.307431 -0.113748 -0.147024 0.245809 0.147244 0.114209 0.053370 -0.001431 0.204150 -0.227706 0.214404 0.178088 -0.104435 0.125111 -0.006427 -0.119825 -0.057883 0.279122 -0.192875
- 0.174497 -0.251281 0.125653 0.064144 -0.001678 0.003009 0.142224 0.112687 0.169855 0.152273 -0.114610 0.015996 0.189066 -0.042648 -0.323340 0.135366 0.283710 0.276200 0.044718 -0.025408 -0.219539 0.355876 -0.032269 -0.189515 0.020146 -0.012987 0.053959 -0.085703 0.081277 0.180649 0.106978 0.136281 0.028762 -0.016325 -0.021761
l -0.072243 0.171601 0.174120 0.208328 -0.358668 0.172160 0.165422 0.117778 -0.005243 0.011218 -0.338527 0.135645 0.096305 -0.077415 -0.043920 -0.392125 -0.112976 0.244105 0.241692 0.254009 -0.545606 -0.201661 0.092845 -0.009093 0.187453 -0.060643 -0.292060 -0.146121 0.114453 0.563436 -0.437932 0.251576 0.514448 -0.020258 0.111642
s -0.164927 -0.164135 0.176446 0.062437 0.032024 0.182424 0.309810 0.402857 0.341481 -0.086992 -0.122853 -0.138204 0.116275 0.133260 -0.008794 0.085550 0.218892 0.340957 0.216470 -0.023646 -0.350761 -0.327656 -0.029907 -0.134438 -0.086149 0.311931 -0.370158 -0.032923 0.360261 0.395151 -0.519441 0.042080 0.072419 -0.486270 0.146209
o -0.392364 -0.280572 0.207939 0.171097 0.089125 0.382018 0.373493 0.505159 0.180456 -0.095358 -0.143089 -0.259993 0.116714 0.252055 -0.232778 0.226413 0.375995 0.453040 0.294855 -0.057700 -0.560560 -0.138190 -0.037709 -0.205694 -0.111584 0.279813 -0.316517 -0.199442 0.323170 0.392381 -0.335657 0.186801 0.176790 -0.511033 0.198893
4 -0.377370 -0.816563 0.443788 0.152591 0.257512 0.160784 0.256051 0.581247 -0.081464 -0.129172 0.099664 -0.816814 0.583836 0.508430 -0.419742 0.950866 0.622901 0.790288 0.129400 -0.035563 -0.095998 0.401391 -0.039918 -0.145519 -0.639274 -0.173601 0.429385 -0.208402 0.119985 0.492878 0.236138 0.294520 -0.557358 -0.494993 -0.034047
/ 1.328301 0.425395 0.399000 -0.505203 -0.488078 -0.973542 -0.226206 -0.663013 1.187282 0.493706 -0.083084 0.562375 0.457688 -0.725126 0.388625 -0.613113 -0.735522 0.062521 -0.278205 0.508190 0.316472 -0.590958 0.052461 -0.018204 0.312803 0.004986 0.066344 0.622607 0.242125 0.527564 -0.851972 -0.497479 -0.509469 0.041776 -0.337365
# 0.807417 0.439075 0.247902 -0.179067 -0.472736 -0.531594 -0.347169 -0.463994 0.300379 0.333660 -0.249144 0.457672 0.341560 -0.518979 0.336714 -0.710915 -0.673297 0.078010 -0.260082 0.471059 0.183202 -0.257605 0.060737 0.181248 0.408261 -0.156654 0.073257 0.277911 -0.069744 0.432161 -0.521775 -0.176554 0.104132 0.483198 -0.274518
B -0.386273 0.422152 -0.763571 0.002335 0.149419 0.570703 0.325677 0.130048 0.466652 -0.272531 -0.034651 0.428633 -1.006576 -0.077187 0.555688 -0.544773 -0.383731 -1.033372 0.281575 -0.318221 -0.206237 -1.035298 -0.007035 -0.070432 0.384152 0.874100 -0.968492 0.255039 0.260826 -0.543844 -0.806782 -0.448494 0.526438 -0.621516 0.449026
r -0.402881 0.385784 -0.697700 0.012130 0.138291 0.567062 0.323667 0.157050 0.442574 -0.260068 -0.051373 0.383555 -0.940543 -0.046052 0.526283 -0.515059 -0.350303 -0.941031 0.284615 -0.285140 -0.242969 -1.005074 -0.010120 -0.065283 0.376350 0.849139 -0.952333 0.217670 0.270965 -0.475526 -0.797231 -0.414234 0.541133 -0.610075 0.442971
\ 1.205665 0.312020 0.424463 -0.450834 -0.468252 -0.893071 -0.167268 -0.518687 1.089703 0.442040 -0.105573 0.465142 0.501218 -0.617317 0.304692 -0.502842 -0.591024 0.174610 -0.237282 0.468946 0.236377 -0.501405 0.038300 -0.016187 0.237041 0.007210 0.058954 0.528462 0.251101 0.584569 -0.794957 -0.397465 -0.455271 0.017701 -0.309737
5 -0.844304 -0.821575 0.567156 -0.186511 0.555891 -0.107724 0.163717 0.567237 -0.226193 -0.444094 0.709419 -1.247965 0.486959 0.929467 -0.433488 1.740186 0.876811 0.870670 0.055259 -0.218838 0.288910 0.240736 -0.050528 -0.045450 -1.266907 -0.316575 0.649791 -0.192530 0.260215 0.059770 0.713757 0.162655 -1.441763 -0.869188 0.024561
I -0.127732 0.643816 0.119097 -0.007056 -0.321105 0.078248 0.125495 -0.109739 0.460994 -0.067538 -0.144045 0.347682 -0.332566 -0.169459 0.078549 -0.574264 -0.285537 -0.084113 0.290002 0.108171 -0.543160 -0.811214 0.079292 -0.038994 0.257681 0.193887 -0.573364 0.027046 0.290661 0.124151 -0.825562 0.050963 0.387066 -0.448342 0.210965
P 0.501413 0.278962 -0.359813 -0.237851 -0.051654 -0.568666 -0.362400 -0.650061 -0.184612 0.073132 0.297612 0.374329 -0.250347 -0.264764 -0.001573 -0.011206 -0.193407 -0.572237 -0.287481 -0.017027 0.614426 0.394878 0.081051 0.138736 0.018553 -0.359487 0.494481 0.183489 -0.308360 -0.649966 0.795975 -0.224007 -0.354893 0.410729 -0.145029
6 -1.345127 -0.535528 0.344173 -0.621058 0.954855 -0.305894 -0.050756 0.364880 -0.426802 -0.758606 1.375692 -1.343898 -0.048132 1.178987 -0.177871 2.156633 0.945758 0.386841 -0.120620 -0.547048 0.810480 -0.133488 -0.064101 0.123202 -1.601046 -0.191493 0.541404 -0.046103 0.320319 -0.864743 1.198348 -0.208439 -2.030697 -0.946819 0.150134
7 -1.234197 -0.601308 0.461871 -0.593688 0.957935 -0.286091 0.060138 0.464109 -0.216820 -0.679200 1.223527 -1.327066 0.093952 1.177702 -0.240071 2.117111 1.097543 0.577773 -0.058641 -0.530097 0.628950 -0.149726 -0.087478 0.034997 -1.499853 -0.030918 0.386221 -0.064360 0.428559 -0.648322 1.036944 -0.193200 -1.963499 -1.093817 0.170428
8 -0.342479 -0.169775 0.235540 -0.249330 0.309970 -0.144567 0.068523 0.151490 0.138358 -0.212833 0.425216 -0.433491 0.080332 0.381848 -0.064159 0.719723 0.369503 0.270123 0.004876 -0.140335 0.164310 -0.167536 -0.020848 -0.021865 -0.524529 0.055710 0.062943 0.007090 0.240684 -0.126509 0.189836 -0.119612 -0.739295 -0.507554 0.081609
<unk> 0.008006 -0.008319 0.001222 0.006915 -0.004322 0.003098 -0.010479 -0.005745 -0.017429 0.009649 -0.001540 -0.000780 0.010480 -0.000270 -0.007077 0.003058 -0.012193 -0.000702 -0.009786 0.013695 0.000323 0.023521 0.001897 0.002930 0.008793 -0.016341 0.019345 -0.000234 -0.017251 0.000764 0.014961 0.004062 0.003497 0.023606 -0.006019
