c -0.178872 -0.035309 0.271700 0.199863 0.976108 0.549348 -0.383459 0.181482 0.407415 -0.270212 0.532276 0.218181 -0.474592 -0.110909 -0.373473 0.400249 0.184867 -0.695150 -0.167467 0.538826 -0.067211 -0.237315 -0.569210 -0.136067 -0.639593 0.173126 0.325741 -0.002561 -0.060803 0.772736 0.424288 -0.191284 -0.158862 -0.291837 -0.694420
C -0.515597 0.342954 0.187536 0.534965 -0.976780 0.207558 0.629518 -0.452057 -0.046061 0.793863 0.025480 0.178849 -0.042625 0.721349 -0.233110 -0.235484 0.000491 0.545617 0.540374 -0.258506 0.216265 -0.230597 -0.829969 -0.804993 -0.084781 -0.551184 -0.439733 0.451463 -0.301723 -1.052416 -0.470551 -0.266374 -1.013143 0.591004 0.270775
( 0.330341 -0.446356 -0.115873 0.210620 -0.404265 0.068796 0.146803 -0.086794 0.036147 -0.278694 0.346966 -0.417129 0.323892 -0.026028 -0.271738 0.129754 -0.083043 0.625543 0.181792 0.150159 0.370009 -0.126198 0.614211 0.682819 0.046984 -0.209796 -0.147809 -0.392709 0.073090 -0.092085 -0.122452 -0.084561 -0.811389 -0.123636 0.126978
) -0.075538 -0.281446 -0.323348 0.339433 0.254668 0.595632 0.125959 -0.038987 0.122014 -0.096169 0.680233 -0.230094 -0.101518 0.189294 -0.236431 0.168398 -0.087948 -0.020842 -0.155469 0.471587 0.238352 -0.297123 -0.180098 0.037576 -0.134143 -0.101621 0.100138 -0.380559 -0.068041 0.005795 -0.062611 -0.217618 -0.663089 -0.143779 0.053669
1 0.275096 -0.227288 0.545327 0.172575 -0.330975 0.420274 0.250802 -0.112625 0.525646 -0.383663 -0.450420 -0.247832 0.284149 -0.972006 0.809907 -0.994680 -0.027229 0.796713 0.539046 0.317881 0.018714 0.449616 -0.109253 -0.525511 -0.424435 -0.416794 -0.084689 0.756279 0.496828 0.855273 0.198561 0.019748 -0.233144 0.107783 -0.709482
O 1.115914 -0.852988 0.092530 -0.696355 0.825068 -0.205792 -0.542458 -0.879003 -0.089036 -0.000098 0.507849 -0.595374 -0.041408 -0.168427 -0.702050 -0.221866 1.037588 -0.575169 1.295250 -0.584888 -0.405073 1.001979 -0.995600 -0.987217 -0.228594 -0.133969 0.602158 -0.539035 -0.120673 -0.494078 -0.732133 -1.247497 -0.453849 -1.294096 0.478476
2 0.012652 0.159321 0.705102 0.219542 -0.382682 0.058817 -0.170706 0.326731 0.437529 -0.214876 -0.440118 0.294157 -0.023964 -0.597549 0.111736 -0.061636 0.141835 0.114340 0.118735 0.122937 -0.114014 -0.019677 -0.060431 0.047026 -0.447717 0.089233 -0.198177 0.507024 0.106068 0.601880 0.478289 0.142154 0.033828 0.182209 -0.742445
N 0.268140 0.104060 0.629602 0.347193 -1.471080 -0.795969 -0.096443 -0.344897 -0.298729 0.381126 -0.465124 0.226310 0.485678 0.227932 -0.196271 0.415809 0.416431 0.552122 0.816314 -0.849383 -0.035882 -0.391830 0.086513 0.108631 -0.106417 -0.191560 -0.818341 0.265553 -0.228041 -0.953504 -0.228065 -0.258821 -0.806252 0.333688 0.504634
= 0.577191 -0.124998 0.438549 -0.239420 -1.166014 -0.452364 0.119828 -1.203660 -0.485480 0.771603 0.291337 -0.397338 0.426597 0.611035 -0.778594 -0.042705 0.661442 0.744307 1.303301 -1.143525 -0.055036 0.291782 0.156988 -0.287674 -0.155504 -0.553290 -0.236297 -0.205961 -0.414959 -1.572789 -0.866834 -0.909508 -1.271039 -0.179761 0.946224
[ 0.727297 -0.681619 -0.025680 -0.167286 -0.659874 -1.075900 -0.241172 -0.054437 -0.561823 -0.028248 -1.037554 0.061208 0.569361 -0.120973 0.318555 0.273878 0.287956 0.096795 0.809489 -0.781770 -0.100420 0.211364 -0.605732 -0.062519 0.793545 0.063008 -0.660614 0.339354 -0.129321 -0.656271 -0.484682 -0.171303 0.127469 -0.010541 0.885618
] 0.510320 -0.092214 0.104710 -1.108523 -0.463301 -1.537637 -0.314559 0.504897 -0.334746 -0.126111 -1.380181 -0.064033 0.202149 -0.279800 -0.027691 -0.289091 0.125086 0.144346 0.291927 -0.922898 -0.388675 1.026529 0.740557 0.596675 1.093227 0.400918 -0.261737 0.227966 0.128154 -0.113361 -0.154162 0.596115 1.494651 -0.017173 0.133361
@ 0.341898 -0.202487 0.221193 -0.513232 -1.065662 -1.121232 0.222359 -1.008056 -1.029891 1.070264 -1.418514 -0.128627 0.738472 0.685039 0.436355 -0.218901 0.464593 0.700363 1.311352 -1.497628 -0.437025 0.990693 -0.654666 -0.956392 0.950916 -0.418764 -0.733865 0.805284 -0.500673 -1.676928 -1.285623 -0.167989 0.433855 0.460447 1.640891
H -1.119332 0.698402 0.033552 0.331146 -2.050380 -1.473662 0.634207 1.106992 -0.691066 0.679975 -2.656157 1.191639 0.578738 0.543594 1.164464 0.318771 -0.908551 0.970127 -0.432178 -0.875429 0.147221 -0.321039 0.056293 0.783665 1.627907 -0.008789 -1.613637 1.611057 -0.240649 -0.486267 -0.055715 1.838914 1.603230 2.135168 0.601858
n -0.394329 0.088987 -0.128177 0.085653 1.138174 -0.175446 -0.379045 1.197527 0.295536 -0.338591 -0.989285 0.706580 -0.393758 -0.691687 0.695544 0.217339 -0.216218 -0.929199 -0.585637 0.550454 -0.344174 0.130348 -1.182922 -0.349725 0.312560 0.671956 0.033354 0.546255 0.142148 1.121130 0.607752 0.712984 1.675434 0.162163 -0.797717
A 0.224238 -0.568751 -0.029234 0.375801 0.075607 0.798360 0.414151 0.016764 0.599666 -0.631209 -0.204044 -0.445029 0.251469 -0.976375 0.927030 -1.082751 -0.387227 0.769927 0.328023 0.776174 0.332561 0.434278 -0.274002 -0.451697 -0.246863 -0.519253 0.128077 0.505236 0.616438 1.127399 0.070876 0.046150 -0.295881 -0.044588 -0.633165
3 -0.318304 0.361498 0.168645 0.186362 0.102958 -0.259458 -0.460307 0.571343 0.118239 0.117807 -0.103888 0.526232 -0.392593 0.152537 -0.556477 0.751393 0.213727 -0.758658 -0.321094 0.006009 -0.162174 -0.383689 -0.238544 0.289194 -0.134221 0.492943 -0.111445 -0.069207 -0.333980 0.018133 0.363815 0.110584 0.309825 0.100503 -0.344456
F -0.676962 -0.511900 -0.721892 1.453027 0.372283 1.456909 0.580032 0.394732 0.422401 -0.417647 0.600901 0.176071 -0.094556 0.256921 0.331666 0.572714 -0.836868 0.250984 -0.645549 1.380267 1.111559 -1.039753 -0.781410 0.130524 -0.180512 -0.483163 -0.226629 0.053198 0.094484 0.939514 0.153909 0.201090 -1.350249 0.408574 -0.332588
+ -0.215266 0.643466 0.415943 0.070199 -1.487695 -1.521499 -0.240084 1.055794 -0.225555 -0.051846 -1.490951 0.869144 0.256378 -0.191685 0.037659 0.668838 -0.261206 0.211613 -0.434392 -0.638345 -0.125090 -0.485143 0.912870 1.448862 0.733251 0.518031 -0.942553 0.506114 0.101582 -0.079460 0.546206 1.179526 0.981861 0.939489 -0.154292
S 0.654018 -0.488263 0.460501 -0.264073 0.015395 -0.039863 -0.163044 -0.852107 0.019230 0.193014 0.397713 -0.409566 0.176888 0.044951 -0.605055 -0.059898 0.844241 0.053959 1.046740 -0.467285 -0.192669 0.439157 -0.305024 -0.415778 -0.460676 -0.292505 0.104008 -0.260214 -0.208887 -0.523489 -0.532876 -0.872953 -0.947674 -0.631647 0.260272
- 1.081009 -0.696144 -0.068210 -0.766322 0.820908 -0.787717 -0.764112 0.180495 -0.152244 -0.682432 -0.261856 -0.281474 0.152697 -0.823345 -0.026024 0.211107 0.319339 -0.600682 0.246712 -0.183284 -0.386091 0.576064 0.229152 0.433985 0.358345 0.506334 0.376547 -0.387280 0.223883 0.388667 0.146170 -0.194609 0.864807 -0.865725 0.067670
l -0.736614 0.028044 -0.297939 0.770218 0.019420 1.131898 0.593489 0.328834 0.480434 0.035480 0.129336 0.087951 -0.185395 0.036108 0.330760 -0.216534 -0.601318 0.333037 -0.503446 0.959920 0.476820 -0.329152 -0.489258 -0.222941 -0.082118 -0.281163 -0.145492 0.288901 0.065959 0.537256 0.138733 0.318515 -0.490613 0.511844 -0.515406
s -0.672687 0.372016 0.034961 0.205479 0.962451 1.298448 0.022871 0.221682 0.666584 0.034520 0.831714 0.103735 -0.580496 0.017515 -0.030361 -0.090800 -0.005005 -0.508227 -0.781486 0.843925 0.072089 -0.322012 -0.055094 -0.408615 -0.886149 0.110375 0.477823 -0.214312 -0.102304 0.837068 0.530157 -0.093356 -0.159957 -0.126204 -0.931940
o -0.672803 0.210411 -0.233777 0.160870 1.564908 1.125536 -0.071532 0.492143 0.692776 -0.263855 0.546120 0.205214 -0.747728 -0.225144 0.139482 -0.279475 -0.108725 -0.860072 -0.688477 0.928180 -0.085347 0.108106 -0.892449 -0.707219 -0.576299 0.184877 0.716508 -0.009609 0.131192 1.304447 0.466518 0.119082 0.552350 -0.233358 -0.940274
4 -0.546426 0.258869 -0.629915 -0.220197 0.989862 -0.232996 -0.347335 0.468801 -0.300856 0.345764 0.407345 0.480437 -0.636029 1.011328 -0.800242 1.015958 0.147381 -1.414470 -0.727148 -0.142444 -0.080404 -0.370126 -0.545162 0.135566 0.400644 0.582879 0.214983 -0.630698 -0.513420 -0.408625 -0.012916 0.064926 0.603396 -0.174788 0.328856
/ 0.117502 0.293845 0.759699 0.099345 -0.611253 0.193615 -0.039936 -0.793684 0.104151 0.496431 0.641217 -0.108209 -0.029676 0.248167 -0.710621 -0.033837 0.653606 0.197339 0.693042 -0.429089 -0.227232 -0.148895 -0.063936 -0.460611 -0.839800 -0.229466 -0.063925 -0.074370 -0.306586 -0.798849 -0.140203 -0.743206 -1.148134 -0.110907 0.011212
# -0.035068 0.251533 0.522814 0.817721 -1.180539 0.520838 0.343441 -0.889728 0.010126 0.512040 0.718189 -0.012657 0.278404 0.484176 -0.136930 0.023810 0.391584 0.579761 0.659036 -0.236800 0.279206 -0.769323 -0.216448 -0.613811 -0.929700 -0.550659 -0.424479 0.024463 -0.287024 -0.889869 -0.229194 -0.780295 -1.816127 0.243269 0.391167
B 0.400596 -0.034586 -0.511334 -0.554396 1.067167 0.846470 0.293531 0.223509 0.401200 -1.181259 1.717391 -1.237430 -0.061328 -0.994930 0.341635 -1.018175 -1.084640 0.752612 -1.145599 1.415784 0.133250 0.061500 2.550761 1.126788 -0.416755 0.167440 1.365625 -1.074399 0.828802 1.030430 0.839891 0.289314 0.677833 -0.706559 -0.950020
r 0.349753 -0.511962 -0.836144 -0.205821 0.839069 1.267300 0.301631 0.083055 0.379268 -1.167711 1.448718 -1.331266 0.076806 -0.856555 0.543585 -1.036017 -1.071848 0.874736 -0.973109 1.468624 0.361232 0.043790 1.989893 0.973639 -0.222789 -0.072362 0.978573 -0.839511 0.737917 1.214414 0.437678 0.198499 0.041686 -0.505959 -0.583968
\ -0.014260 0.526819 0.791705 0.217210 -0.798882 -0.074508 -0.059387 -0.594581 -0.009001 0.421369 0.282838 0.217469 0.119184 0.228623 -0.284472 0.107908 0.568672 0.141106 0.473061 -0.529214 -0.205848 -0.409244 0.169118 -0.197322 -0.798152 -0.149875 -0.236833 0.136981 -0.251785 -0.596183 0.018541 -0.440641 -0.755783 0.178519 0.085911
5 -0.660409 0.331152 -0.706523 -0.648117 1.266272 -0.119573 -0.267368 0.320187 -0.375389 0.480585 0.478897 0.557521 -0.713401 1.257007 -0.709180 0.778207 0.226643 -1.530520 -0.872164 -0.426522 -0.046665 -0.233519 -0.606401 -0.205746 0.493631 0.432740 0.314307 -0.661383 -0.503487 -0.315561 -0.147340 0.068109 0.651362 -0.356907 0.423493
I -0.015142 -0.333329 -0.307149 0.218769 0.815460 1.246124 0.206352 -0.092107 0.524807 -0.760772 1.096533 -0.647627 -0.005095 -0.472846 0.331783 -0.567434 -0.431139 0.349556 -0.510167 1.055064 0.323550 -0.068592 0.698896 0.269488 -0.606781 -0.201750 0.614928 -0.436076 0.519872 1.234473 0.332987 0.020596 -0.422237 -0.398693 -0.616117
P 0.601295 -0.450796 -0.262897 -0.539295 -0.450375 -0.636108 -0.033450 -0.553002 -0.546065 0.432329 -0.351837 -0.402148 0.474116 0.298784 0.051289 -0.048474 0.392848 0.244383 0.679975 -0.833016 -0.022785 0.524644 0.246840 -0.221517 0.553460 -0.108385 -0.154146 -0.206663 -0.337904 -1.032177 -0.702504 -0.509416 -0.022734 -0.189251 1.017295
6 -0.644094 0.559231 -0.500577 -0.647939 0.835330 -0.005998 -0.190239 0.149501 -0.230589 0.498355 0.321758 0.465219 -0.633396 1.014817 -0.486152 0.396268 0.156563 -1.176534 -0.944170 -0.456366 0.057350 -0.160426 -0.104610 -0.238797 0.270903 0.302394 0.378300 -0.464767 -0.434092 -0.196161 -0.002072 0.056970 0.594134 -0.213525 0.150330
7 -0.226087 0.269606 -0.268132 -0.406868 0.502595 -0.127159 -0.213391 0.107544 -0.152694 0.193313 -0.038944 0.262928 -0.264524 0.378412 -0.148136 0.255408 0.079942 -0.658682 -0.540180 -0.244679 -0.089208 0.017518 0.000951 -0.088444 0.171757 0.244426 0.200231 -0.242992 -0.141625 0.002226 0.005299 0.086590 0.517661 -0.170891 0.104754
8 0.055261 0.036009 0.066040 -0.018211 -0.203293 -0.133094 0.008758 -0.117241 -0.066480 0.077757 -0.047559 0.010099 0.073256 0.008345 -0.001755 -0.023092 0.053414 0.097406 0.155020 -0.159904 -0.020417 0.038207 0.045128 -0.031223 -0.037887 -0.040718 -0.043265 0.055919 -0.029687 -0.211968 -0.064792 -0.054889 -0.059284 0.048749 0.089457
<unk> -0.002151 -0.028692 0.013809 0.000570 -0.007410 0.028856 -0.002408 -0.004027 0.018499 0.018349 0.019039 -0.003340 0.001319 0.025934 -0.021238 0.005285 0.035922 0.011957 0.030327 -0.019291 0.015621 0.000055 -0.036059 -0.037411 -0.023793 -0.016411 -0.017496 -0.000322 -0.035693 -0.004549 -0.015287 -0.032413 -0.049030 -0.011040 -0.010668
