c 0.019451 0.067083 0.177597 -0.090701 -0.352757 0.168343 0.483139 -0.539383 -0.069674 0.554044 0.187614 -0.087179 -0.266135 0.084016 0.519626 0.214490 0.373575 0.058216 0.374771 -0.373454 -0.426701 0.251356 -0.232978 0.037067 -0.204219 -0.252130 -0.278600 -0.131648 -0.310105 0.215921 -0.248289 -0.667455 0.159170 0.358305 0.015459
C -0.017709 0.126136 0.037574 -0.221381 0.225715 0.174541 -0.580847 -0.113099 0.207381 0.296200 0.045206 -0.166185 -0.001347 -0.587102 0.124011 -0.100793 0.345714 -0.293658 -0.161554 0.172844 0.011470 -0.096275 0.267533 -0.155929 0.191511 0.051461 -0.044377 0.526172 0.125790 0.329054 0.120361 0.512257 -0.310637 -0.272977 0.474605
( -0.090267 0.061978 0.149935 -0.127783 -0.004958 -0.055623 -0.355021 0.355394 -0.315043 0.286707 0.207809 0.033595 -0.083130 -0.554029 0.362970 -0.219138 0.277347 -0.100722 -0.083156 0.147327 0.134867 -0.026825 -0.092253 -0.033257 0.065065 -0.204128 0.097808 0.154606 0.008973 0.220730 0.057711 0.119810 -0.216399 -0.237192 -0.054396
) 0.093008 -0.026111 0.112244 -0.137442 -0.356742 -0.050277 -0.067303 -0.004826 -0.144119 0.152859 0.048997 0.060326 -0.318124 -0.325138 0.276984 0.127711 0.300687 0.049121 0.084552 -0.173873 -0.101359 -0.008674 -0.036727 0.209919 -0.112516 -0.261280 -0.115686 -0.037681 -0.105789 0.303420 -0.068754 -0.447556 0.030098 0.066068 -0.027727
1 0.180340 -0.123143 0.047467 0.020057 -0.262655 -0.166847 -0.339242 0.169885 -0.392913 0.511688 0.403694 -0.193100 -0.861241 -0.910770 0.803621 -0.043405 0.844964 -0.090654 -0.318187 -0.071670 0.025165 -0.250074 0.333263 0.495122 -0.272393 -0.549459 -0.228765 -0.130460 -0.158647 0.616225 -0.323927 -0.101404 -0.297053 0.358608 -0.348983
O -0.221277 0.196339 0.227359 -0.312984 -0.039694 0.137159 -0.395697 0.200984 0.078711 0.194006 0.109409 0.023119 0.299424 -0.547411 0.288665 -0.161179 0.317396 -0.190034 -0.045097 0.293734 -0.021624 -0.079401 -0.217053 0.008994 0.118237 -0.198905 -0.013258 0.144456 0.092478 0.357586 0.177861 0.305394 -0.340950 -0.410916 0.204224
2 0.061863 0.094284 0.039162 -0.052948 -0.173221 0.186547 -0.165565 -0.482308 0.082549 0.374321 0.279642 -0.165017 -0.628295 -0.561837 0.702681 0.029355 0.682397 -0.223147 -0.120365 -0.022524 -0.423896 -0.300953 0.184593 0.359827 -0.114237 -0.335077 -0.367785 0.019038 -0.194628 0.616555 -0.338400 -0.052062 -0.344516 0.436683 0.055777
N -0.180692 0.232370 0.159550 -0.192759 0.379645 0.224451 -0.505696 -0.103055 0.021500 0.694432 0.350360 -0.250583 -0.030198 -0.627542 0.418042 -0.282370 0.384760 -0.407758 -0.218137 0.302593 0.007408 -0.043554 0.131461 -0.431867 0.286435 -0.019575 -0.000391 0.584632 0.087024 0.347421 0.068132 0.811484 -0.547563 -0.233049 0.317866
= -0.418806 0.288872 0.370389 -0.410722 0.090991 0.232215 -0.332027 0.261632 -0.094176 0.685981 0.389759 -0.111383 0.427747 -0.564891 0.447333 -0.272181 0.260672 -0.303198 -0.063056 0.305412 0.076285 0.145689 -0.448772 -0.420270 0.189587 -0.204263 0.095228 0.314159 0.075563 0.265227 0.158191 0.525912 -0.515833 -0.456861 0.292382
[ -0.109069 0.266742 -0.175042 0.011702 0.539284 0.168957 -0.850290 -0.155617 0.536217 -0.417320 -0.185330 -0.023187 0.150137 -0.668261 0.032985 -0.395544 0.370277 -0.393329 -0.284032 0.639152 -0.172172 -0.645878 0.371426 0.282659 0.411296 0.156141 -0.063379 0.377906 0.212943 0.373648 0.188941 0.962946 -0.491936 -0.380090 0.358321
] 0.054690 0.157699 -0.301828 0.154707 0.488983 0.108419 -0.824608 -0.256442 0.569171 -0.683325 -0.318851 0.038374 -0.086453 -0.574570 -0.008150 -0.329100 0.384560 -0.305337 -0.313350 0.586192 -0.198958 -0.791765 0.592687 0.541429 0.346848 0.213538 -0.133194 0.283494 0.186494 0.375262 0.123935 0.841340 -0.360266 -0.209452 0.252887
@ 0.144284 0.142052 -0.457435 0.200705 0.704629 -0.175474 -1.304098 0.135722 0.405017 -1.019241 -0.554579 0.087220 -0.136311 -1.059753 -0.206903 -0.489022 0.525446 -0.246985 -0.395383 0.726561 0.082378 -0.924450 0.880978 0.720821 0.562228 0.245466 0.022964 0.434425 0.317459 0.336832 0.378813 1.023213 -0.263687 -0.640135 0.227635
H 0.164594 0.154377 -0.414990 0.249767 0.631069 0.058466 -0.977418 -0.396975 0.557739 -0.706321 -0.387502 -0.026386 -0.343792 -0.732045 -0.016766 -0.347497 0.514572 -0.332031 -0.307468 0.573957 -0.228928 -0.899222 0.864090 0.569170 0.441097 0.254830 -0.169460 0.425385 0.172975 0.422216 0.090596 0.904905 -0.362209 -0.158617 0.295616
n 0.038100 0.101692 -0.039696 -0.038751 -0.324467 0.423019 0.314025 -0.974684 0.642226 -0.017117 -0.080418 -0.076883 -0.152745 0.234550 0.244146 0.295046 0.267449 -0.119305 0.246519 -0.135137 -0.756931 -0.230291 -0.042961 0.377247 -0.178499 -0.105513 -0.494310 -0.212797 -0.195228 0.396063 -0.336038 -0.400598 -0.009182 0.521652 0.310112
A 0.534719 -0.449673 -0.061500 0.055004 -0.895212 -0.343932 0.026993 0.021158 -0.343505 0.071429 0.064108 -0.021417 -1.212295 -0.521719 0.540687 0.433308 0.709571 0.293378 -0.173147 -0.564966 -0.030893 -0.225547 0.477529 1.002527 -0.609948 -0.582829 -0.408746 -0.508932 -0.249325 0.647149 -0.439658 -1.036837 0.253137 0.711697 -0.520436
3 -0.062830 0.246390 0.041498 -0.156031 -0.177704 0.448595 0.152064 -0.995789 0.588572 0.037105 -0.046282 -0.041872 -0.130222 0.013158 0.322002 0.159034 0.330770 -0.170941 0.227028 -0.065674 -0.763772 -0.251746 -0.132094 0.246375 0.020563 -0.067346 -0.422107 0.050978 -0.201474 0.434030 -0.270463 -0.245535 -0.146835 0.421552 0.485430
F 0.497473 -0.302137 0.177487 -0.158913 -0.825304 -0.181197 -0.190982 -0.030139 -0.301199 0.194185 -0.076433 0.264568 -0.759105 -0.509271 0.462940 0.318476 0.522036 0.143818 0.225980 -0.362638 -0.166169 -0.106646 0.184812 0.422124 -0.310251 -0.442243 -0.282134 0.012956 -0.149514 0.695313 -0.174692 -1.017686 0.324559 0.125776 -0.102488
+ -0.019411 0.240248 -0.193124 0.087642 0.461907 0.206863 -0.678444 -0.459843 0.505042 -0.284637 -0.109682 -0.084359 -0.197595 -0.579231 0.213833 -0.305029 0.476257 -0.370913 -0.251111 0.467697 -0.326285 -0.680382 0.480638 0.354130 0.335943 0.122237 -0.196756 0.342195 0.080861 0.453426 -0.014260 0.776871 -0.480226 -0.026004 0.301384
S -0.285509 0.190279 0.279423 -0.338167 0.074678 0.198010 -0.377637 0.258777 -0.069340 0.608738 0.373917 -0.112788 0.294340 -0.595308 0.426782 -0.225406 0.289018 -0.282116 -0.156055 0.299597 0.093151 0.072470 -0.281093 -0.316296 0.111367 -0.215454 0.056038 0.300624 0.084742 0.277422 0.130008 0.521843 -0.449069 -0.386173 0.259531
- -0.207642 0.231074 0.179053 -0.237583 -0.244011 0.394948 0.145837 -0.505500 0.459477 0.133581 0.091537 -0.001690 0.244322 0.002372 0.368349 0.051286 0.255322 -0.161844 0.145312 0.077170 -0.526103 -0.124471 -0.366854 0.188548 -0.054844 -0.179759 -0.295329 -0.125055 -0.108996 0.368485 -0.114084 -0.097927 -0.205285 0.128184 0.274335
l 0.230271 -0.237771 0.125275 -0.244411 -0.610937 0.071659 0.031078 -0.032009 -0.112743 0.505748 0.205620 -0.123333 -0.419110 -0.254534 0.332238 0.335483 0.340258 0.077636 -0.038351 -0.441382 0.016400 0.193997 0.062713 0.165531 -0.429377 -0.301177 -0.218253 -0.054414 -0.121200 0.395569 -0.240544 -0.624280 0.101401 0.324837 0.136075
s -0.062101 0.082268 0.125988 -0.096897 -0.344694 0.084131 0.566918 -0.463828 -0.012280 0.382319 0.196177 -0.112214 -0.241778 0.189037 0.309353 0.235383 0.172024 0.108758 0.201839 -0.422769 -0.361756 0.192860 -0.297171 0.106012 -0.194704 -0.268845 -0.237622 -0.289173 -0.298539 0.064318 -0.289902 -0.623701 0.077283 0.514085 -0.042519
o 0.044834 0.025304 0.071864 -0.052522 -0.518244 0.198000 0.609182 -0.677429 0.197082 0.119927 0.023030 -0.045193 -0.241741 0.329539 0.287324 0.377513 0.200547 0.140275 0.343880 -0.405977 -0.549114 0.056011 -0.220024 0.334807 -0.280632 -0.246477 -0.389754 -0.387753 -0.317367 0.207917 -0.319780 -0.811267 0.216502 0.532369 0.002980
4 -0.125271 0.316384 0.026932 -0.239003 -0.258600 0.588864 0.524175 -1.278937 1.018216 -0.445464 -0.557269 0.164856 0.581186 0.751145 -0.314799 0.381737 -0.155184 0.019937 0.729622 -0.164770 -0.932587 -0.008923 -0.438432 0.110155 0.149335 0.257614 -0.400036 -0.015323 -0.138615 0.066176 0.019296 -0.593057 0.356036 0.076399 0.822383
/ -0.695418 0.356613 0.579685 -0.419786 0.394410 0.167226 0.124114 0.527525 -0.720265 1.751021 1.093986 -0.460702 0.415455 -0.324159 0.699625 -0.428193 0.004993 -0.337333 -0.250823 0.068747 0.449683 0.744634 -0.698958 -1.283086 0.172149 -0.227383 0.387346 0.442887 -0.030463 -0.188404 0.057844 0.857489 -0.732969 -0.261561 -0.006634
# -0.115059 -0.006757 0.284962 -0.300419 0.173538 0.068157 -0.330029 0.319861 -0.374802 1.184130 0.614649 -0.364013 -0.074197 -0.584919 0.433051 -0.171436 0.278254 -0.267365 -0.347028 0.049312 0.408717 0.367029 0.059270 -0.705125 0.079523 -0.129878 0.125943 0.567669 0.117562 0.235707 0.086032 0.650035 -0.398304 -0.230167 0.147451
B -0.030592 -0.057656 -0.076929 0.433292 0.003188 -0.749241 0.471414 0.573535 -1.096190 0.025494 0.405776 0.002666 -0.927897 -0.145394 0.414574 -0.203553 0.119792 0.401618 -0.183194 -0.392494 0.208403 -0.009444 -0.083740 0.466132 -0.220471 -0.494597 0.226581 -0.725536 -0.461112 -0.395409 -0.362320 -0.643423 -0.006385 0.680249 -1.235626
r -0.000793 -0.068473 -0.071437 0.432761 -0.049374 -0.755575 0.472194 0.580341 -1.115250 0.041383 0.413946 -0.004862 -0.987691 -0.177574 0.452599 -0.166923 0.155864 0.402379 -0.178889 -0.424056 0.212765 -0.003401 -0.072653 0.490513 -0.258008 -0.522932 0.207817 -0.753627 -0.466537 -0.378327 -0.396673 -0.710908 -0.000670 0.725036 -1.252311
\ -0.598753 0.289704 0.525495 -0.416542 0.265983 0.221063 0.183818 0.326722 -0.503679 1.535947 0.942914 -0.401177 0.422997 -0.194939 0.606823 -0.315733 -0.019215 -0.296339 -0.198234 0.037773 0.312117 0.674659 -0.675331 -1.132383 0.137491 -0.188137 0.272883 0.394309 -0.033495 -0.124780 0.046246 0.697920 -0.593649 -0.195633 0.084027
5 -0.015182 0.201997 -0.131543 -0.089101 -0.086905 0.468370 0.767111 -1.127830 1.218872 -1.034987 -1.036197 0.328449 1.184452 1.518120 -1.178797 0.494947 -0.839562 0.277309 0.956346 -0.158577 -0.666198 0.205292 -0.325935 -0.121318 0.287732 0.702267 -0.222302 -0.018533 0.068805 -0.507636 0.431781 -0.541251 0.881499 -0.407076 0.807985
I 0.221569 -0.403511 0.133533 0.059171 -0.553518 -0.380520 0.264526 0.624749 -0.921384 0.676058 0.402320 -0.106327 -0.658770 -0.230242 0.460256 0.187321 0.277364 0.319178 -0.053040 -0.460740 0.481076 0.408850 0.046786 0.071016 -0.409984 -0.419177 0.032626 -0.297692 -0.119856 0.116843 -0.165105 -0.615508 0.291933 0.204368 -0.689889
P -0.265926 0.133639 -0.002794 -0.106881 0.432021 -0.046878 -0.673690 0.731131 0.084156 -0.379596 -0.101794 0.109261 0.734771 -0.416336 -0.262927 -0.454304 -0.131647 -0.168926 -0.274300 0.647142 0.425030 -0.191050 -0.103012 -0.089164 0.353860 0.152637 0.330594 0.220957 0.359782 -0.099575 0.469996 0.894614 -0.277383 -0.829897 0.135923
6 0.254887 -0.281951 -0.431957 0.557930 0.463686 -0.148541 0.796187 0.160501 0.432925 -1.461310 -1.020457 0.412919 1.241446 2.138080 -1.986982 0.313861 -1.810150 0.531484 0.553969 -0.031887 0.451439 0.490624 0.031438 -0.660650 0.183907 1.152040 0.498891 -0.151575 0.378515 -1.605696 0.591808 -0.110707 1.192305 -0.565741 0.052898
7 0.082918 -0.025357 -0.238643 0.347931 0.353557 0.089740 0.948010 -0.386751 0.741831 -1.069139 -0.934229 0.260646 1.334584 1.988800 -1.698538 0.329753 -1.453916 0.431839 0.760486 -0.085688 0.008396 0.444174 -0.170997 -0.621769 0.284433 0.934392 0.204461 -0.174950 0.212708 -1.226960 0.491810 -0.170218 1.025471 -0.507856 0.251712
8 -0.020449 -0.012210 -0.015262 0.121709 0.103677 -0.011450 0.452330 -0.033967 0.106658 -0.246134 -0.224604 0.098781 0.488988 0.823262 -0.598185 0.136181 -0.648553 0.201071 0.264684 -0.072217 0.093320 0.285155 -0.159930 -0.361116 0.036696 0.290362 0.137522 -0.106435 0.073282 -0.532282 0.144351 -0.082694 0.361301 -0.132238 -0.003388
<unk> -0.026279 0.063108 0.036008 -0.048839 -0.008344 0.057777 -0.046157 -0.107728 0.053337 0.092935 0.034767 -0.031288 -0.026809 -0.119283 0.122270 -0.013998 0.140676 -0.045883 0.020029 0.016135 -0.090154 -0.039033 -0.003650 0.035083 0.031863 -0.053817 -0.065301 0.042150 -0.028712 0.116556 -0.007691 0.023199 -0.059438 -0.010165 0.065217
